digraph Tree {
node [shape=box, style="filled, rounded", color="black", fontname=helvetica] ;
edge [fontname=helvetica] ;
0 [label=<X<SUB>0</SUB> &le; 0.32<br/>gini = 0.495<br/>samples = 1029<br/>value = [565, 464]>, fillcolor="#e581392e"] ;
1 [label=<X<SUB>1</SUB> &le; 5.906<br/>gini = 0.297<br/>samples = 496<br/>value = [90, 406]>, fillcolor="#399de5c6"] ;
0 -> 1 [labeldistance=2.5, labelangle=45, headlabel="True"] ;
2 [label=<X<SUB>2</SUB> &le; 6.219<br/>gini = 0.082<br/>samples = 397<br/>value = [17, 380]>, fillcolor="#399de5f4"] ;
1 -> 2 ;
3 [label=<gini = 0.0<br/>samples = 282<br/>value = [0, 282]>, fillcolor="#399de5ff"] ;
2 -> 3 ;
4 [label=<X<SUB>1</SUB> &le; -4.721<br/>gini = 0.252<br/>samples = 115<br/>value = [17, 98]>, fillcolor="#399de5d3"] ;
2 -> 4 ;
5 [label=<gini = 0.0<br/>samples = 97<br/>value = [0, 97]>, fillcolor="#399de5ff"] ;
4 -> 5 ;
6 [label=<X<SUB>0</SUB> &le; -2.117<br/>gini = 0.105<br/>samples = 18<br/>value = [17, 1]>, fillcolor="#e58139f0"] ;
4 -> 6 ;
7 [label=<gini = 0.0<br/>samples = 1<br/>value = [0, 1]>, fillcolor="#399de5ff"] ;
6 -> 7 ;
8 [label=<gini = 0.0<br/>samples = 17<br/>value = [17, 0]>, fillcolor="#e58139ff"] ;
6 -> 8 ;
9 [label=<X<SUB>0</SUB> &le; -4.326<br/>gini = 0.387<br/>samples = 99<br/>value = [73, 26]>, fillcolor="#e58139a4"] ;
1 -> 9 ;
10 [label=<gini = 0.0<br/>samples = 26<br/>value = [0, 26]>, fillcolor="#399de5ff"] ;
9 -> 10 ;
11 [label=<gini = 0.0<br/>samples = 73<br/>value = [73, 0]>, fillcolor="#e58139ff"] ;
9 -> 11 ;
12 [label=<X<SUB>2</SUB> &le; -4.386<br/>gini = 0.194<br/>samples = 533<br/>value = [475, 58]>, fillcolor="#e58139e0"] ;
0 -> 12 [labeldistance=2.5, labelangle=-45, headlabel="False"] ;
13 [label=<X<SUB>0</SUB> &le; 3.304<br/>gini = 0.397<br/>samples = 33<br/>value = [9, 24]>, fillcolor="#399de59f"] ;
12 -> 13 ;
14 [label=<gini = 0.0<br/>samples = 24<br/>value = [0, 24]>, fillcolor="#399de5ff"] ;
13 -> 14 ;
15 [label=<gini = 0.0<br/>samples = 9<br/>value = [9, 0]>, fillcolor="#e58139ff"] ;
13 -> 15 ;
16 [label=<X<SUB>0</SUB> &le; 1.592<br/>gini = 0.127<br/>samples = 500<br/>value = [466, 34]>, fillcolor="#e58139ec"] ;
12 -> 16 ;
17 [label=<X<SUB>2</SUB> &le; -2.286<br/>gini = 0.347<br/>samples = 139<br/>value = [108, 31]>, fillcolor="#e58139b6"] ;
16 -> 17 ;
18 [label=<X<SUB>1</SUB> &le; 5.657<br/>gini = 0.18<br/>samples = 20<br/>value = [2, 18]>, fillcolor="#399de5e3"] ;
17 -> 18 ;
19 [label=<gini = 0.0<br/>samples = 18<br/>value = [0, 18]>, fillcolor="#399de5ff"] ;
18 -> 19 ;
20 [label=<gini = 0.0<br/>samples = 2<br/>value = [2, 0]>, fillcolor="#e58139ff"] ;
18 -> 20 ;
21 [label=<X<SUB>1</SUB> &le; 1.368<br/>gini = 0.195<br/>samples = 119<br/>value = [106, 13]>, fillcolor="#e58139e0"] ;
17 -> 21 ;
22 [label=<X<SUB>2</SUB> &le; 0.363<br/>gini = 0.385<br/>samples = 50<br/>value = [37, 13]>, fillcolor="#e58139a5"] ;
21 -> 22 ;
23 [label=<gini = 0.0<br/>samples = 11<br/>value = [0, 11]>, fillcolor="#399de5ff"] ;
22 -> 23 ;
24 [label=<X<SUB>2</SUB> &le; 2.397<br/>gini = 0.097<br/>samples = 39<br/>value = [37, 2]>, fillcolor="#e58139f1"] ;
22 -> 24 ;
25 [label=<X<SUB>2</SUB> &le; 1.428<br/>gini = 0.298<br/>samples = 11<br/>value = [9, 2]>, fillcolor="#e58139c6"] ;
24 -> 25 ;
26 [label=<gini = 0.0<br/>samples = 9<br/>value = [9, 0]>, fillcolor="#e58139ff"] ;
25 -> 26 ;
27 [label=<gini = 0.0<br/>samples = 2<br/>value = [0, 2]>, fillcolor="#399de5ff"] ;
25 -> 27 ;
28 [label=<gini = 0.0<br/>samples = 28<br/>value = [28, 0]>, fillcolor="#e58139ff"] ;
24 -> 28 ;
29 [label=<gini = 0.0<br/>samples = 69<br/>value = [69, 0]>, fillcolor="#e58139ff"] ;
21 -> 29 ;
30 [label=<X<SUB>0</SUB> &le; 2.037<br/>gini = 0.016<br/>samples = 361<br/>value = [358, 3]>, fillcolor="#e58139fd"] ;
16 -> 30 ;
31 [label=<X<SUB>2</SUB> &le; -2.648<br/>gini = 0.133<br/>samples = 42<br/>value = [39, 3]>, fillcolor="#e58139eb"] ;
30 -> 31 ;
32 [label=<X<SUB>1</SUB> &le; 6.473<br/>gini = 0.375<br/>samples = 4<br/>value = [1, 3]>, fillcolor="#399de5aa"] ;
31 -> 32 ;
33 [label=<gini = 0.0<br/>samples = 3<br/>value = [0, 3]>, fillcolor="#399de5ff"] ;
32 -> 33 ;
34 [label=<gini = 0.0<br/>samples = 1<br/>value = [1, 0]>, fillcolor="#e58139ff"] ;
32 -> 34 ;
35 [label=<gini = 0.0<br/>samples = 38<br/>value = [38, 0]>, fillcolor="#e58139ff"] ;
31 -> 35 ;
36 [label=<gini = 0.0<br/>samples = 319<br/>value = [319, 0]>, fillcolor="#e58139ff"] ;
30 -> 36 ;
}